{"learner":{"attributes":{"best_iteration":"2","best_score":"0.5667989417989417","scikit_learn":"{\"_estimator_type\": \"classifier\"}"},"feature_names":[],"feature_types":[],"gradient_booster":{"model":{"gbtree_model_param":{"num_parallel_tree":"1","num_trees":"13"},"iteration_indptr":[0,1,2,3,4,5,6,7,8,9,10,11,12,13],"tree_info":[0,0,0,0,0,0,0,0,0,0,0,0,0],"trees":[{"base_weights":[1.119181E-5,-6.808188E-1,1.00066796E-1,-9.2039114E-1,1.1840492E-2,1.65212E-1,-1.1800331E-1,1.4925378E-2,-1.243754E-1,9.307977E-2,1.9198557E-3],"categories":[],"categories_nodes":[],"categories_segments":[],"categories_sizes":[],"default_left":[0,0,0,0,0,0,0,0,0,0,0],"id":0,"left_children":[1,3,5,7,-1,9,-1,-1,-1,-1,-1],"loss_changes":[5.446183E0,2.0704017E0,6.007806E0,2.9511118E0,0E0,7.4948587E0,0E0,0E0,0E0,0E0,0E0],"parents":[2147483647,0,0,1,1,2,2,3,3,5,5],"right_children":[2,4,6,8,-1,10,-1,-1,-1,-1,-1],"split_conditions":[-1.0286592E0,2.9726133E-1,1.768259E0,-1.1071304E0,1.1840492E-2,-8.966138E-1,-1.1800331E-1,1.4925378E-2,-1.243754E-1,9.307977E-2,1.9198557E-3],"split_indices":[11,12,19,21,0,0,0,0,0,0,0],"split_type":[0,0,0,0,0,0,0,0,0,0,0],"sum_hessian":[7.794874E1,9.243921E0,6.870482E1,6.9953995E0,2.2485213E0,6.620646E1,2.498357E0,1.7488499E0,5.2465496E0,9.743592E0,5.6462868E1],"tree_param":{"num_deleted":"0","num_feature":"53","num_nodes":"11","size_leaf_vector":"1"}},{"base_weights":[-1.492746E-3,-3.331411E-1,1.9496146E-1,-4.776667E-1,4.3198156E-1,5.3235393E-2,8.845667E-1,-1.8823713E-2,-1.059639E-1,9.588099E-2,-6.9648996E-2,1.2917975E-2,-1.21988274E-1,1.11539E-1,-2.5187079E-2],"categories":[],"categories_nodes":[],"categories_segments":[],"categories_sizes":[],"default_left":[0,0,0,0,0,0,0,0,0,0,0,0,0,0,0],"id":1,"left_children":[1,3,5,7,9,11,13,-1,-1,-1,-1,-1,-1,-1,-1],"loss_changes":[5.205282E0,3.4925878E0,4.8569784E0,4.0909605E0,3.7870674E0,4.2848215E0,2.5080538E0,0E0,0E0,0E0,0E0,0E0,0E0,0E0,0E0],"parents":[2147483647,0,0,1,1,2,2,3,3,4,4,5,5,6,6],"right_children":[2,4,6,8,10,12,14,-1,-1,-1,-1,-1,-1,-1,-1],"split_conditions":[-2.3484586E-1,2.6168317E-1,8.128189E-1,3.6549243E-1,2.7938944E-1,1.600682E0,1.6049995E0,-1.8823713E-2,-1.059639E-1,9.588099E-2,-6.9648996E-2,1.2917975E-2,-1.21988274E-1,1.11539E-1,-2.5187079E-2],"split_indices":[21,5,9,2,5,3,0,0,0,0,0,0,0,0,0],"split_type":[0,0,0,0,0,0,0,0,0,0,0,0,0,0,0],"sum_hessian":[7.789548E1,2.87183E1,4.9177174E1,2.4471521E1,4.246778E0,4.1686966E1,7.4902105E0,1.7227364E1,7.2441583E0,2.997662E0,1.249116E0,4.0188183E1,1.4987823E0,6.2410946E0,1.249116E0],"tree_param":{"num_deleted":"0","num_feature":"53","num_nodes":"15","size_leaf_vector":"1"}},{"base_weights":[-2.848428E-3,1.7088626E-1,-3.3899295E-1,1.3725084E-1,8.375325E-2,-8.773998E-1,2.3388176E-1,2.8282125E-2,-4.7856256E-2,-1.1600369E-1,-7.8616285E-4,5.6712598E-2,-1.0408389E-1],"categories":[],"categories_nodes":[],"categories_segments":[],"categories_sizes":[],"default_left":[0,0,0,0,0,0,0,0,0,0,0,0,0],"id":2,"left_children":[1,3,5,-1,7,9,11,-1,-1,-1,-1,-1,-1],"loss_changes":[4.661039E0,5.3952746E0,8.592354E0,0E0,5.747415E0,3.487667E0,6.5220685E0,0E0,0E0,0E0,0E0,0E0,0E0],"parents":[2147483647,0,0,1,1,2,2,4,4,5,5,6,6],"right_children":[2,4,6,-1,8,10,12,-1,-1,-1,-1,-1,-1],"split_conditions":[2.2813407E-1,-1.2719615E0,9.3359E-1,1.3725084E-1,2.9499203E-1,4.7908202E-1,2.8091905E-1,2.8282125E-2,-4.7856256E-2,-1.1600369E-1,-7.8616285E-4,5.6712598E-2,-1.0408389E-1],"split_indices":[13,16,2,0,15,16,5,0,0,0,0,0,0],"split_type":[0,0,0,0,0,0,0,0,0,0,0,0,0],"sum_hessian":[7.782041E1,5.1628235E1,2.6192177E1,2.4932187E0,4.9135017E1,1.32282505E1,1.2963926E1,3.6655483E1,1.2479533E1,9.7311325E0,3.4971182E0,1.0717261E1,2.2466655E0],"tree_param":{"num_deleted":"0","num_feature":"53","num_nodes":"13","size_leaf_vector":"1"}},{"base_weights":[-3.1446074E-3,-1.995636E-1,2.8067446E-1,7.837508E-1,-2.960415E-1,4.8616317E-1,-5.095267E-1,-7.781237E-3,1.2401664E-1,-3.791846E-2,9.586642E-2,9.462862E-2,5.6029237E-3,-9.7091556E-2,3.6028784E-2],"categories":[],"categories_nodes":[],"categories_segments":[],"categories_sizes":[],"default_left":[0,0,0,0,0,0,0,0,0,0,0,0,0,0,0],"id":3,"left_children":[1,3,5,7,9,11,13,-1,-1,-1,-1,-1,-1,-1,-1],"loss_changes":[4.441711E0,4.6982837E0,5.539948E0,1.8584008E0,4.911667E0,5.167491E0,3.2451863E0,0E0,0E0,0E0,0E0,0E0,0E0,0E0,0E0],"parents":[2147483647,0,0,1,1,2,2,3,3,4,4,5,5,6,6],"right_children":[2,4,6,8,10,12,14,-1,-1,-1,-1,-1,-1,-1,-1],"split_conditions":[3.9149812E-1,-2.6449287E-2,1.2120768E0,6.0373284E-2,2.1424854E0,-4.059569E-1,4.3929294E-3,-7.781237E-3,1.2401664E-1,-3.791846E-2,9.586642E-2,9.462862E-2,5.6029237E-3,-9.7091556E-2,3.6028784E-2],"split_indices":[8,5,8,4,15,4,15,0,0,0,0,0,0,0,0],"split_type":[0,0,0,0,0,0,0,0,0,0,0,0,0,0,0],"sum_hessian":[7.767083E1,4.6078644E1,3.1592188E1,3.4805748E0,4.259807E1,2.5377604E1,6.214586E0,1.4925827E0,1.9879922E0,4.0605156E1,1.9929115E0,1.1681589E1,1.3696013E1,3.9846923E0,2.2298932E0],"tree_param":{"num_deleted":"0","num_feature":"53","num_nodes":"15","size_leaf_vector":"1"}},{"base_weights":[-4.5438082E-5,-2.9236874E-1,1.7304042E-1,-3.8014704E-1,6.164834E-2,2.4025856E-1,-9.6546344E-2,-4.7254633E-2,5.4683037E-2,2.0132388E-3,7.802869E-2],"categories":[],"categories_nodes":[],"categories_segments":[],"categories_sizes":[],"default_left":[0,0,0,0,0,0,0,0,0,0,0],"id":4,"left_children":[1,3,5,7,-1,9,-1,-1,-1,-1,-1],"loss_changes":[4.023655E0,2.5937557E0,4.054453E0,2.6214185E0,0E0,5.6860976E0,0E0,0E0,0E0,0E0,0E0],"parents":[2147483647,0,0,1,1,2,2,3,3,5,5],"right_children":[2,4,6,8,-1,10,-1,-1,-1,-1,-1],"split_conditions":[-2.3484586E-1,2.1010213E0,1.7003838E0,1.6283572E0,6.164834E-2,5.275748E-1,-9.6546344E-2,-4.7254633E-2,5.4683037E-2,2.0132388E-3,7.802869E-2],"split_indices":[21,15,0,1,0,8,0,0,0,0,0],"split_type":[0,0,0,0,0,0,0,0,0,0,0],"sum_hessian":[7.752364E1,2.8574778E1,4.8948868E1,2.6588545E1,1.9862326E0,4.696499E1,1.9838789E0,2.4624273E1,1.9642708E0,3.410173E1,1.2863257E1],"tree_param":{"num_deleted":"0","num_feature":"53","num_nodes":"11","size_leaf_vector":"1"}},{"base_weights":[6.7334453E-4,-5.6520754E-1,8.394667E-2,2.401789E-2,-7.60211E-1,9.0333027E-1,-7.500596E-3,2.5349665E-2,-9.71156E-2,1.2004701E-1,-2.525631E-2,8.560784E-3,-6.6466205E-2],"categories":[],"categories_nodes":[],"categories_segments":[],"categories_sizes":[],"default_left":[0,0,0,0,0,0,0,0,0,0,0,0,0],"id":5,"left_children":[1,3,5,-1,7,9,11,-1,-1,-1,-1,-1,-1],"loss_changes":[3.7403936E0,1.7817671E0,5.1909227E0,0E0,2.0504675E0,2.6918044E0,3.9258735E0,0E0,0E0,0E0,0E0,0E0,0E0],"parents":[2147483647,0,0,1,1,2,2,4,4,5,5,6,6],"right_children":[2,4,6,-1,8,10,12,-1,-1,-1,-1,-1,-1],"split_conditions":[-1.0286592E0,-2.4133203E0,-8.718388E-1,2.401789E-2,-1.1071304E0,5.62504E-1,1.1345044E0,2.5349665E-2,-9.71156E-2,1.2004701E-1,-2.525631E-2,8.560784E-3,-6.6466205E-2],"split_indices":[11,11,8,0,21,9,17,0,0,0,0,0,0],"split_type":[0,0,0,0,0,0,0,0,0,0,0,0,0],"sum_hessian":[7.73686E1,9.182419E0,6.818618E1,1.7447478E0,7.437671E0,5.9545155E0,6.2231663E1,1.2463841E0,6.191287E0,4.7061615E0,1.2483542E0,5.5270515E1,6.9611473E0],"tree_param":{"num_deleted":"0","num_feature":"53","num_nodes":"13","size_leaf_vector":"1"}},{"base_weights":[4.8728622E-4,4.645004E-2,-1.0050221E-1,6.358991E-1,-7.258214E-2,1.0543294E-1,-3.0652577E-2,-1.8523498E-2,7.743897E-2],"categories":[],"categories_nodes":[],"categories_segments":[],"categories_sizes":[],"default_left":[0,0,0,0,0,0,0,0,0],"id":6,"left_children":[1,3,-1,5,7,-1,-1,-1,-1],"loss_changes":[3.6637154E0,5.364427E0,0E0,5.385452E0,6.246205E0,0E0,0E0,0E0,0E0],"parents":[2147483647,0,0,1,1,3,3,4,4],"right_children":[2,4,-1,6,8,-1,-1,-1,-1],"split_conditions":[1.768259E0,-8.966138E-1,-1.0050221E-1,2.514099E-1,1.3002938E0,1.0543294E-1,-3.0652577E-2,-1.8523498E-2,7.743897E-2],"split_indices":[19,0,0,15,19,0,0,0,0],"split_type":[0,0,0,0,0,0,0,0,0],"sum_hessian":[7.726367E1,7.479838E1,2.4652982E0,1.1837358E1,6.2961018E1,8.115424E0,3.7219346E0,5.6259438E1,6.7015777E0],"tree_param":{"num_deleted":"0","num_feature":"53","num_nodes":"9","size_leaf_vector":"1"}},{"base_weights":[9.3568343E-4,-1.5030292E-1,2.8941664E-1,7.3747024E-2,-5.587513E-1,-1.621165E-1,7.0297456E-1,1.2419355E-1,-5.380573E-3,-1.0422515E-1,8.224968E-3,5.392132E-2,-7.468557E-2,1.0537987E-1,7.147948E-3],"categories":[],"categories_nodes":[],"categories_segments":[],"categories_sizes":[],"default_left":[0,0,0,0,0,0,0,0,0,0,0,0,0,0,0],"id":7,"left_children":[1,3,5,7,9,11,13,-1,-1,-1,-1,-1,-1,-1,-1],"loss_changes":[3.4508204E0,4.790183E0,5.19366E0,5.1918807E0,5.819025E0,6.0689473E0,3.1117601E0,0E0,0E0,0E0,0E0,0E0,0E0,0E0,0E0],"parents":[2147483647,0,0,1,1,2,2,3,3,4,4,5,5,6,6],"right_children":[2,4,6,8,10,12,14,-1,-1,-1,-1,-1,-1,-1,-1],"split_conditions":[2.6758787E-1,2.2770783E-1,-4.8246797E-2,-1.2719615E0,4.14769E-1,1.5563166E-1,9.466208E-1,1.2419355E-1,-5.380573E-3,-1.0422515E-1,8.224968E-3,5.392132E-2,-7.468557E-2,1.0537987E-1,7.147948E-3],"split_indices":[16,13,1,16,9,6,20,0,0,0,0,0,0,0,0],"split_type":[0,0,0,0,0,0,0,0,0,0,0,0,0,0,0],"sum_hessian":[7.709678E1,5.08941E1,2.6202682E1,3.339505E1,1.7499048E1,1.281688E1,1.3385802E1,2.4273736E0,3.0967678E1,9.618183E0,7.880866E0,5.8628726E0,6.954007E0,8.17531E0,5.2104917E0],"tree_param":{"num_deleted":"0","num_feature":"53","num_nodes":"15","size_leaf_vector":"1"}},{"base_weights":[2.3447277E-3,4.4798423E-2,-9.348052E-2,5.7165974E-1,-6.0746204E-2,9.636401E-2,-2.946764E-2,-9.0526E-2,3.3666298E-3],"categories":[],"categories_nodes":[],"categories_segments":[],"categories_sizes":[],"default_left":[0,0,0,0,0,0,0,0,0],"id":8,"left_children":[1,3,-1,5,7,-1,-1,-1,-1],"loss_changes":[3.138652E0,4.2285137E0,0E0,4.5908794E0,5.112237E0,0E0,0E0,0E0,0E0],"parents":[2147483647,0,0,1,1,3,3,4,4],"right_children":[2,4,-1,6,8,-1,-1,-1,-1],"split_conditions":[1.768259E0,-8.966138E-1,-9.348052E-2,2.514099E-1,-7.208191E-1,9.636401E-2,-2.946764E-2,-9.0526E-2,3.3666298E-3],"split_indices":[19,0,0,15,0,0,0,0,0],"split_type":[0,0,0,0,0,0,0,0,0],"sum_hessian":[7.68368E1,7.441781E1,2.4189937E0,1.1682819E1,6.273499E1,7.9661565E0,3.7166634E0,5.4446445E0,5.7290344E1],"tree_param":{"num_deleted":"0","num_feature":"53","num_nodes":"9","size_leaf_vector":"1"}},{"base_weights":[7.0690067E-4,1.3633868E-1,-2.621163E-1,-1.6994685E-2,6.5309227E-1,-7.2144717E-1,2.2302331E-1,3.1482466E-2,-2.8650602E-2,1.1386309E-1,1.0286547E-2,-9.5465414E-2,-1.2187848E-3,5.172471E-2,-9.139737E-2],"categories":[],"categories_nodes":[],"categories_segments":[],"categories_sizes":[],"default_left":[0,0,0,0,0,0,0,0,0,0,0,0,0,0,0],"id":9,"left_children":[1,3,5,7,9,11,13,-1,-1,-1,-1,-1,-1,-1,-1],"loss_changes":[2.8028162E0,4.1201863E0,6.1251917E0,3.753844E0,3.0599184E0,2.3014288E0,5.0828133E0,0E0,0E0,0E0,0E0,0E0,0E0,0E0,0E0],"parents":[2147483647,0,0,1,1,2,2,3,3,4,4,5,5,6,6],"right_children":[2,4,6,8,10,12,14,-1,-1,-1,-1,-1,-1,-1,-1],"split_conditions":[2.2813407E-1,2.1848626E-1,9.3359E-1,3.1956387E-1,3.466772E-1,4.7908202E-1,2.8091905E-1,3.1482466E-2,-2.8650602E-2,1.1386309E-1,1.0286547E-2,-9.5465414E-2,-1.2187848E-3,5.172471E-2,-9.139737E-2],"split_indices":[13,13,2,7,21,16,5,0,0,0,0,0,0,0,0],"split_type":[0,0,0,0,0,0,0,0,0,0,0,0,0,0,0],"sum_hessian":[7.6624084E1,5.0859123E1,2.5764957E1,3.996704E1,1.0892081E1,1.2984306E1,1.278065E1,1.7837536E1,2.2129505E1,5.218085E0,5.673997E0,9.511051E0,3.4732552E0,1.0586285E1,2.1943655E0],"tree_param":{"num_deleted":"0","num_feature":"53","num_nodes":"15","size_leaf_vector":"1"}},{"base_weights":[4.753075E-4,-2.441548E-1,1.456283E-1,-6.4734054E-1,-6.5576404E-2,2.0831926E-1,-9.0288855E-2,-9.480306E-2,1.680807E-2,-5.2460637E-2,2.3758894E-2,1.6089112E-3,6.822131E-2],"categories":[],"categories_nodes":[],"categories_segments":[],"categories_sizes":[],"default_left":[0,0,0,0,0,0,0,0,0,0,0,0,0],"id":10,"left_children":[1,3,5,7,9,11,-1,-1,-1,-1,-1,-1,-1],"loss_changes":[2.781099E0,2.0575938E0,3.4190354E0,2.3269248E0,3.0925114E0,4.2880945E0,0E0,0E0,0E0,0E0,0E0,0E0,0E0],"parents":[2147483647,0,0,1,1,2,2,3,3,4,4,5,5],"right_children":[2,4,6,8,10,12,-1,-1,-1,-1,-1,-1,-1],"split_conditions":[-2.3484586E-1,-3.067147E-1,1.7003838E0,1.3383473E-1,-2.8904125E-1,5.275748E-1,-9.0288855E-2,-9.480306E-2,1.680807E-2,-5.2460637E-2,2.3758894E-2,1.6089112E-3,6.822131E-2],"split_indices":[21,8,0,10,16,8,0,0,0,0,0,0,0],"split_type":[0,0,0,0,0,0,0,0,0,0,0,0,0],"sum_hessian":[7.63201E1,2.8167175E1,4.8152924E1,7.8404393E0,2.0326736E1,4.6192394E1,1.9605297E0,5.6093435E0,2.2310958E0,7.794487E0,1.2532249E1,3.359776E1,1.2594635E1],"tree_param":{"num_deleted":"0","num_feature":"53","num_nodes":"13","size_leaf_vector":"1"}},{"base_weights":[-1.2151188E-3,3.6890656E-2,-8.526059E-2,6.2575805E-1,-4.9577944E-2,1.22636415E-1,-3.5369277E-2,-1.5163322E-2,7.2717264E-2],"categories":[],"categories_nodes":[],"categories_segments":[],"categories_sizes":[],"default_left":[0,0,0,0,0,0,0,0,0],"id":11,"left_children":[1,3,-1,5,7,-1,-1,-1,-1],"loss_changes":[2.5321977E0,3.8365624E0,0E0,6.1062E0,5.349721E0,0E0,0E0,0E0,0E0],"parents":[2147483647,0,0,1,1,3,3,4,4],"right_children":[2,4,-1,6,8,-1,-1,-1,-1],"split_conditions":[1.768259E0,-9.6297413E-1,-8.526059E-2,2.514099E-1,1.3002938E0,1.22636415E-1,-3.5369277E-2,-1.5163322E-2,7.2717264E-2],"split_indices":[19,0,0,15,19,0,0,0,0],"split_type":[0,0,0,0,0,0,0,0,0],"sum_hessian":[7.6081406E1,7.3737785E1,2.3436186E0,8.642681E0,6.509511E1,5.2011843E0,3.4414964E0,5.824697E1,6.8481355E0],"tree_param":{"num_deleted":"0","num_feature":"53","num_nodes":"9","size_leaf_vector":"1"}},{"base_weights":[-2.073398E-4,2.6752225E-1,-1.1683404E-1,-5.7099205E-2,9.628672E-1,-4.3639028E-1,2.7029442E-2,9.531286E-2,-2.693275E-2,1.2750472E-1,1.44291865E-2,1.1420728E-2,-7.593479E-2,5.1001817E-2,-1.4419098E-2],"categories":[],"categories_nodes":[],"categories_segments":[],"categories_sizes":[],"default_left":[0,0,0,0,0,0,0,0,0,0,0,0,0,0,0],"id":12,"left_children":[1,3,5,7,9,11,13,-1,-1,-1,-1,-1,-1,-1,-1],"loss_changes":[2.4302576E0,5.3859196E0,2.5041409E0,3.9110408E0,1.751122E0,3.0898163E0,3.2429607E0,0E0,0E0,0E0,0E0,0E0,0E0,0E0,0E0],"parents":[2147483647,0,0,1,1,2,2,3,3,4,4,5,5,6,6],"right_children":[2,4,6,8,10,12,14,-1,-1,-1,-1,-1,-1,-1,-1],"split_conditions":[-4.6513525E-1,3.85245E-1,-2.7308273E-1,-6.3094574E-1,7.544844E-1,-2.9318112E-1,-8.565513E-1,9.531286E-2,-2.693275E-2,1.2750472E-1,1.44291865E-2,1.1420728E-2,-7.593479E-2,5.1001817E-2,-1.4419098E-2],"split_indices":[4,17,4,10,17,17,0,0,0,0,0,0,0,0,0],"split_type":[0,0,0,0,0,0,0,0,0,0,0,0,0,0,0],"sum_hessian":[7.5830956E1,2.2617085E1,5.3213875E1,1.6044569E1,6.5725155E0,1.5888418E1,3.7325455E1,2.1793916E0,1.3865176E1,4.354282E0,2.2182338E0,6.112993E0,9.775425E0,9.25099E0,2.8074467E1],"tree_param":{"num_deleted":"0","num_feature":"53","num_nodes":"15","size_leaf_vector":"1"}}]},"name":"gbtree"},"learner_model_param":{"base_score":"5.128177E-1","boost_from_average":"1","num_class":"0","num_feature":"53","num_target":"1"},"objective":{"name":"binary:logistic","reg_loss_param":{"scale_pos_weight":"1"}}},"version":[2,1,4]}